{"learner":{"attributes":{},"gradient_booster":{"model":{"gbtree_model_param":{"num_trees":"15","size_leaf_vector":"0"},"tree_info":[0,1,2,0,1,2,0,1,2,0,1,2,0,1,2],"trees":[{"base_weights":[2.42074891924858093e-01,1.38975501060485840e+00,-6.18968427181243896e-01,-4.28571462631225586e-01,1.44851255416870117e+00,-6.91910564899444580e-01,1.03448271751403809e+00,-7.06194758415222168e-01,-1.20000027120113373e-01],"default_left":[false,false,true,false,false,true,false,false,false],"id":0,"leaf_child_counts":[0,0,0,0,0,0,0,0,0],"left_children":[1,3,5,-1,-1,7,-1,-1,-1],"loss_changes":[1.15162269592285156e+02,5.95095062255859375e+00,8.76958465576171875e+00,0.00000000000000000e+00,0.00000000000000000e+00,4.42628860473632812e-01,0.00000000000000000e+00,0.00000000000000000e+00,0.00000000000000000e+00],"parents":[2147483647,0,0,1,1,2,2,5,5],"right_children":[2,4,6,-1,-1,8,-1,-1,-1],"split_conditions":[4.23499984741210938e+01,1.53500003814697266e+01,5.00000000000000000e-01,-4.28571462631225586e-01,1.44851255416870117e+00,2.01499996185302734e+01,1.03448271751403809e+00,-7.06194758415222168e-01,-1.20000027120113373e-01],"split_indices":[0,1,6,0,0,1,0,0,0],"sum_hessian":[1.14666656494140625e+02,4.88888854980468750e+01,6.57777709960937500e+01,1.33333325386047363e+00,4.75555534362792969e+01,6.35555534362792969e+01,2.22222208976745605e+00,6.17777748107910156e+01,1.77777767181396484e+00],"tree_param":{"num_deleted":"0","num_feature":"9","num_nodes":"9","size_leaf_vector":"0"}},{"base_weights":[-3.11239242553710938e-01,-7.39726066589355469e-01,4.12213712930679321e-01,-6.66666746139526367e-01,1.35211265087127686e+00,-2.55448480146469592e-08,-7.11864471435546875e-01,5.45454502105712891e-01,1.42857146263122559e+00],"default_left":[true,false,false,false,false,false,false,false,false],"id":1,"leaf_child_counts":[0,0,0,0,0,0,0,0,0],"left_children":[1,-1,3,5,7,-1,-1,-1,-1],"loss_changes":[3.61604423522949219e+01,0.00000000000000000e+00,4.51810913085937500e+01,6.32767677307128906e-01,6.80446624755859375e-01,0.00000000000000000e+00,0.00000000000000000e+00,0.00000000000000000e+00,0.00000000000000000e+00],"parents":[2147483647,0,0,2,2,3,3,4,4],"right_children":[2,-1,4,6,8,-1,-1,-1,-1],"split_conditions":[5.00000000000000000e-01,-7.39726066589355469e-01,4.23499984741210938e+01,1.67000007629394531e+01,4.46500015258789062e+01,-2.55448480146469592e-08,-7.11864471435546875e-01,5.45454502105712891e-01,1.42857146263122559e+00],"split_indices":[5,0,0,1,0,0,0,0,0],"sum_hessian":[1.14666656494140625e+02,7.19999923706054688e+01,4.26666641235351562e+01,1.99999980926513672e+01,2.26666660308837891e+01,1.33333325386047363e+00,1.86666660308837891e+01,2.66666650772094727e+00,1.99999980926513672e+01],"tree_param":{"num_deleted":"0","num_feature":"9","num_nodes":"9","size_leaf_vector":"0"}},{"base_weights":[6.91642239689826965e-02,-7.25731968879699707e-01,1.35411465167999268e+00,-7.39403545856475830e-01,-2.55448480146469592e-08,-5.17241418361663818e-01,1.46456694602966309e+00],"default_left":[false,false,true,false,false,false,false],"id":2,"leaf_child_counts":[0,0,0,0,0,0,0],"left_children":[1,3,5,-1,-1,-1,-1],"loss_changes":[1.19124908447265625e+02,7.15480804443359375e-01,9.96696472167968750e+00,0.00000000000000000e+00,0.00000000000000000e+00,0.00000000000000000e+00,0.00000000000000000e+00],"parents":[2147483647,0,0,1,1,2,2],"right_children":[2,4,6,-1,-1,-1,-1],"split_conditions":[2.07500000000000000e+02,4.61250000000000000e+03,5.00000000000000000e-01,-7.39403545856475830e-01,-2.55448480146469592e-08,-5.17241418361663818e-01,1.46456694602966309e+00],"split_indices":[2,3,4,0,0,0,0],"sum_hessian":[1.14666656494140625e+02,7.11111068725585938e+01,4.35555534362792969e+01,6.97777709960937500e+01,1.33333325386047363e+00,2.22222208976745605e+00,4.13333320617675781e+01],"tree_param":{"num_deleted":"0","num_feature":"9","num_nodes":"7","size_leaf_vector":"0"}},{"base_weights":[1.33850201964378357e-01,5.06274163722991943e-01,-4.62101995944976807e-01,-1.25454634428024292e-01,6.08644723892211914e-01,-5.09228944778442383e-01,1.09899260103702545e-01,4.38842386007308960e-01,-5.58114111423492432e-01],"default_left":[true,false,false,false,false,false,false,false,false],"id":3,"leaf_child_counts":[0,0,0,0,0,0,0,0,0],"left_children":[1,3,5,7,-1,-1,-1,-1,-1],"loss_changes":[1.40166110992431641e+01,2.57869815826416016e+00,7.13846206665039062e-01,1.76474034786224365e+00,0.00000000000000000e+00,0.00000000000000000e+00,0.00000000000000000e+00,0.00000000000000000e+00,0.00000000000000000e+00],"parents":[2147483647,0,0,1,1,2,2,3,3],"right_children":[2,4,6,8,-1,-1,-1,-1,-1],"split_conditions":[4.42500000000000000e+01,1.67500000000000000e+01,2.01499996185302734e+01,3.93000030517578125e+01,6.08644723892211914e-01,-5.09228944778442383e-01,1.09899260103702545e-01,4.38842386007308960e-01,-5.58114111423492432e-01],"split_indices":[0,1,1,0,0,0,0,0,0],"sum_hessian":[6.10989151000976562e+01,3.76937332153320312e+01,2.34051837921142578e+01,5.22496700286865234e+00,3.24687652587890625e+01,2.17250099182128906e+01,1.68017327785491943e+00,2.26133108139038086e+00,2.96363592147827148e+00],"tree_param":{"num_deleted":"0","num_feature":"9","num_nodes":"9","size_leaf_vector":"0"}},{"base_weights":[-1.83671489357948303e-01,-5.34394562244415283e-01,2.09685519337654114e-01,-4.82389360666275024e-01,4.68866020441055298e-01,6.26769214868545532e-02,5.79516112804412842e-01],"default_left":[true,false,false,false,false,false,false],"id":4,"leaf_child_counts":[0,0,0,0,0,0,0],"left_children":[1,-1,3,-1,5,-1,-1],"loss_changes":[7.44580793380737305e+00,0.00000000000000000e+00,4.84943485260009766e+00,0.00000000000000000e+00,8.29278469085693359e-01,0.00000000000000000e+00,0.00000000000000000e+00],"parents":[2147483647,0,0,2,2,4,4],"right_children":[2,-1,4,-1,6,-1,-1],"split_conditions":[5.00000000000000000e-01,-5.34394562244415283e-01,4.08499984741210938e+01,-4.82389360666275024e-01,4.46500015258789062e+01,6.26769214868545532e-02,5.79516112804412842e-01],"split_indices":[5,0,0,0,0,0,0],"sum_hessian":[5.21587867736816406e+01,2.73841323852539062e+01,2.47746543884277344e+01,6.51549339294433594e+00,1.82591609954833984e+01,4.24446392059326172e+00,1.40146970748901367e+01],"tree_param":{"num_deleted":"0","num_feature":"9","num_nodes":"7","size_leaf_vector":"0"}},{"base_weights":[2.48684193938970566e-02,-5.12142062187194824e-01,5.48652410507202148e-01,6.25091791152954102e-02,-5.37838339805603027e-01,-3.02307516336441040e-01,5.91668665409088135e-01],"default_left":[false,false,true,false,false,false,false],"id":5,"leaf_child_counts":[0,0,0,0,0,0,0],"left_children":[1,3,5,-1,-1,-1,-1],"loss_changes":[1.67017936706542969e+01,4.66908931732177734e-01,1.27835083007812500e+00,0.00000000000000000e+00,0.00000000000000000e+00,0.00000000000000000e+00,0.00000000000000000e+00],"parents":[2147483647,0,0,1,1,2,2],"right_children":[2,4,6,-1,-1,-1,-1],"split_conditions":[2.07500000000000000e+02,1.63500003814697266e+01,5.00000000000000000e-01,6.25091791152954102e-02,-5.37838339805603027e-01,-3.02307516336441040e-01,5.91668665409088135e-01],"split_indices":[2,1,4,0,0,0,0],"sum_hessian":[5.73793754577636719e+01,2.83429450988769531e+01,2.90364303588867188e+01,1.15182423591613770e+00,2.71911220550537109e+01,1.10712814331054688e+00,2.79293022155761719e+01],"tree_param":{"num_deleted":"0","num_feature":"9","num_nodes":"7","size_leaf_vector":"0"}},{"base_weights":[1.09894059598445892e-01,3.35429072380065918e-01,-4.65961426496505737e-01,-1.99119582772254944e-01,4.82287168502807617e-01,2.80926078557968140e-01,-4.94166105985641479e-01,5.13989210128784180e-01,4.48439717292785645e-02],"default_left":[true,true,false,true,false,false,false,false,false],"id":6,"leaf_child_counts":[0,0,0,0,0,0,0,0,0],"left_children":[1,3,-1,5,7,-1,-1,-1,-1],"loss_changes":[4.03286981582641602e+00,1.82541704177856445e+00,0.00000000000000000e+00,9.11538124084472656e-01,2.20663547515869141e-01,0.00000000000000000e+00,0.00000000000000000e+00,0.00000000000000000e+00,0.00000000000000000e+00],"parents":[2147483647,0,0,1,1,3,3,4,4],"right_children":[2,4,-1,6,8,-1,-1,-1,-1],"split_conditions":[4.60499992370605469e+01,1.67500000000000000e+01,-4.65961426496505737e-01,3.93000030517578125e+01,2.01500000000000000e+02,2.80926078557968140e-01,-4.94166105985641479e-01,5.13989210128784180e-01,4.48439717292785645e-02],"split_indices":[0,1,0,0,2,0,0,0,0],"sum_hessian":[2.88483581542968750e+01,2.10295886993408203e+01,7.81877088546752930e+00,4.45564079284667969e+00,1.65739479064941406e+01,1.71430158615112305e+00,2.74133920669555664e+00,1.52908182144165039e+01,1.28312933444976807e+00],"tree_param":{"num_deleted":"0","num_feature":"9","num_nodes":"9","size_leaf_vector":"0"}},{"base_weights":[-1.38653725385665894e-01,-4.80683505535125732e-01,1.71568483114242554e-01,-3.81515115499496460e-01,3.40035468339920044e-01,5.04973053932189941e-01,-1.15364573895931244e-01],"default_left":[true,false,false,false,false,false,false],"id":7,"leaf_child_counts":[0,0,0,0,0,0,0],"left_children":[1,-1,3,-1,5,-1,-1],"loss_changes":[2.75436782836914062e+00,0.00000000000000000e+00,1.42876958847045898e+00,0.00000000000000000e+00,9.00672435760498047e-01,0.00000000000000000e+00,0.00000000000000000e+00],"parents":[2147483647,0,0,2,2,4,4],"right_children":[2,-1,4,-1,6,-1,-1],"split_conditions":[5.00000000000000000e-01,-4.80683505535125732e-01,4.08499984741210938e+01,-3.81515115499496460e-01,4.07500000000000000e+03,5.04973053932189941e-01,-1.15364573895931244e-01],"split_indices":[5,0,0,0,3,0,0],"sum_hessian":[2.41815814971923828e+01,1.12398309707641602e+01,1.29417495727539062e+01,2.72636389732360840e+00,1.02153854370117188e+01,7.41937017440795898e+00,2.79601573944091797e+00],"tree_param":{"num_deleted":"0","num_feature":"9","num_nodes":"7","size_leaf_vector":"0"}},{"base_weights":[8.12510214745998383e-03,-4.84255105257034302e-01,4.31993871927261353e-01,-2.67865121364593506e-01,5.05671799182891846e-01],"default_left":[false,false,true,false,false],"id":8,"leaf_child_counts":[0,0,0,0,0],"left_children":[1,-1,3,-1,-1],"loss_changes":[5.63827085494995117e+00,0.00000000000000000e+00,8.83527755737304688e-01,0.00000000000000000e+00,0.00000000000000000e+00],"parents":[2147483647,0,0,2,2],"right_children":[2,-1,4,-1,-1],"split_conditions":[2.02500000000000000e+02,-4.84255105257034302e-01,5.00000000000000000e-01,-2.67865121364593506e-01,5.05671799182891846e-01],"split_indices":[2,0,4,0,0],"sum_hessian":[2.50132064819335938e+01,1.15055303573608398e+01,1.35076751708984375e+01,1.03554213047027588e+00,1.24721336364746094e+01],"tree_param":{"num_deleted":"0","num_feature":"9","num_nodes":"5","size_leaf_vector":"0"}},{"base_weights":[8.82001146674156189e-02,3.20148944854736328e-01,-3.10628443956375122e-01,-3.18797342479228973e-02,4.71871376037597656e-01,-3.75256597995758057e-01,3.27751878648996353e-03,3.23532313108444214e-01,-3.98184090852737427e-01,5.26412069797515869e-01,7.52380117774009705e-02],"default_left":[false,false,false,false,false,false,false,false,false,false,false],"id":9,"leaf_child_counts":[0,0,0,0,0,0,0,0,0,0,0],"left_children":[1,3,5,7,9,-1,-1,-1,-1,-1,-1],"loss_changes":[1.57154691219329834e+00,5.78744173049926758e-01,1.30239009857177734e-01,6.64612114429473877e-01,1.21311306953430176e-01,0.00000000000000000e+00,0.00000000000000000e+00,0.00000000000000000e+00,0.00000000000000000e+00,0.00000000000000000e+00,0.00000000000000000e+00],"parents":[2147483647,0,0,1,1,2,2,3,3,4,4],"right_children":[2,4,6,8,10,-1,-1,-1,-1,-1,-1],"split_conditions":[4.42500000000000000e+01,1.73999996185302734e+01,2.01499996185302734e+01,4.07500000000000000e+01,2.00500000000000000e+02,-3.75256597995758057e-01,3.27751878648996353e-03,3.23532313108444214e-01,-3.98184090852737427e-01,5.26412069797515869e-01,7.52380117774009705e-02],"split_indices":[0,1,1,0,2,0,0,0,0,0,0],"sum_hessian":[1.49132452011108398e+01,9.55409622192382812e+00,5.35914945602416992e+00,3.11545372009277344e+00,6.43864202499389648e+00,4.28209304809570312e+00,1.07705652713775635e+00,1.64050078392028809e+00,1.47495293617248535e+00,5.37265300750732422e+00,1.06598901748657227e+00],"tree_param":{"num_deleted":"0","num_feature":"9","num_nodes":"11","size_leaf_vector":"0"}},{"base_weights":[-8.72181951999664307e-02,-4.19688075780868530e-01,1.24943137168884277e-01,-1.23862601816654205e-01,4.11477178335189819e-01,-5.02457857131958008e-01,2.39702299237251282e-01],"default_left":[true,false,false,true,false,false,false],"id":10,"leaf_child_counts":[0,0,0,0,0,0,0],"left_children":[1,-1,3,5,-1,-1,-1],"loss_changes":[1.03237521648406982e+00,0.00000000000000000e+00,7.10500776767730713e-01,9.07797932624816895e-01,0.00000000000000000e+00,0.00000000000000000e+00,0.00000000000000000e+00],"parents":[2147483647,0,0,2,2,3,3],"right_children":[2,-1,4,6,-1,-1,-1],"split_conditions":[5.00000000000000000e-01,-4.19688075780868530e-01,4.46500015258789062e+01,5.00000000000000000e-01,4.11477178335189819e-01,-5.02457857131958008e-01,2.39702299237251282e-01],"split_indices":[5,0,0,7,0,0,0],"sum_hessian":[1.28924884796142578e+01,4.64123392105102539e+00,8.25125503540039062e+00,4.72024869918823242e+00,3.53100609779357910e+00,2.12517976760864258e+00,2.59506893157958984e+00],"tree_param":{"num_deleted":"0","num_feature":"9","num_nodes":"7","size_leaf_vector":"0"}},{"base_weights":[-1.59606523811817169e-02,3.76388520002365112e-01,-3.91998767852783203e-01,6.99819475412368774e-02,4.22521203756332397e-01],"default_left":[true,true,false,false,false],"id":11,"leaf_child_counts":[0,0,0,0,0],"left_children":[1,3,-1,-1,-1],"loss_changes":[1.92121601104736328e+00,6.08049035072326660e-02,0.00000000000000000e+00,0.00000000000000000e+00,0.00000000000000000e+00],"parents":[2147483647,0,0,1,1],"right_children":[2,4,-1,-1,-1],"split_conditions":[1.65499992370605469e+01,4.35499992370605469e+01,-3.91998767852783203e-01,6.99819475412368774e-02,4.22521203756332397e-01],"split_indices":[1,0,0,0,0],"sum_hessian":[1.10217800140380859e+01,5.39345073699951172e+00,5.62832927703857422e+00,1.03514432907104492e+00,4.35830640792846680e+00],"tree_param":{"num_deleted":"0","num_feature":"9","num_nodes":"5","size_leaf_vector":"0"}},{"base_weights":[6.62481039762496948e-02,2.10878521203994751e-01,-2.89059430360794067e-01,-6.98286145925521851e-02,3.60830694437026978e-01,2.64495849609375000e-01,-3.26592266559600830e-01,5.38162887096405029e-02,4.24232602119445801e-01],"default_left":[false,false,false,false,false,false,false,false,false],"id":12,"leaf_child_counts":[0,0,0,0,0,0,0,0,0],"left_children":[1,3,-1,5,7,-1,-1,-1,-1],"loss_changes":[5.62122106552124023e-01,3.41284453868865967e-01,0.00000000000000000e+00,3.82757514715194702e-01,7.56013989448547363e-02,0.00000000000000000e+00,0.00000000000000000e+00,0.00000000000000000e+00,0.00000000000000000e+00],"parents":[2147483647,0,0,1,1,3,3,4,4],"right_children":[2,4,-1,6,8,-1,-1,-1,-1],"split_conditions":[4.58499984741210938e+01,1.73999996185302734e+01,-2.89059430360794067e-01,4.07500000000000000e+01,3.53750000000000000e+03,2.64495849609375000e-01,-3.26592266559600830e-01,5.38162887096405029e-02,4.24232602119445801e-01],"split_indices":[0,1,0,0,3,0,0,0,0],"sum_hessian":[8.75253009796142578e+00,6.50934553146362305e+00,2.24318432807922363e+00,2.45255112648010254e+00,4.05679416656494141e+00,1.05228614807128906e+00,1.40026509761810303e+00,1.01082694530487061e+00,3.04596734046936035e+00],"tree_param":{"num_deleted":"0","num_feature":"9","num_nodes":"9","size_leaf_vector":"0"}},{"base_weights":[-6.15374445915222168e-02,-3.52781444787979126e-01,1.04402817785739899e-01,-6.17461428046226501e-02,3.29322099685668945e-01,1.80539697408676147e-01,-3.50808322429656982e-01],"default_left":[true,false,false,false,false,false,false],"id":13,"leaf_child_counts":[0,0,0,0,0,0,0],"left_children":[1,-1,3,5,-1,-1,-1],"loss_changes":[4.44940418004989624e-01,0.00000000000000000e+00,2.50199019908905029e-01,3.70078325271606445e-01,0.00000000000000000e+00,0.00000000000000000e+00,0.00000000000000000e+00],"parents":[2147483647,0,0,2,2,3,3],"right_children":[2,-1,4,6,-1,-1,-1],"split_conditions":[5.00000000000000000e-01,-3.52781444787979126e-01,4.46500015258789062e+01,1.82500000000000000e+01,3.29322099685668945e-01,1.80539697408676147e-01,-3.50808322429656982e-01],"split_indices":[5,0,0,1,0,0,0],"sum_hessian":[7.44437313079833984e+00,2.29334235191345215e+00,5.15103101730346680e+00,3.37981748580932617e+00,1.77121341228485107e+00,2.04291701316833496e+00,1.33690035343170166e+00],"tree_param":{"num_deleted":"0","num_feature":"9","num_nodes":"7","size_leaf_vector":"0"}},{"base_weights":[-1.87409669160842896e-02,-3.65146666765213013e-01,2.78487861156463623e-01,3.49368631839752197e-01,2.77477782219648361e-02],"default_left":[false,false,false,false,false],"id":14,"leaf_child_counts":[0,0,0,0,0],"left_children":[1,-1,3,-1,-1],"loss_changes":[7.96338081359863281e-01,0.00000000000000000e+00,6.49223923683166504e-02,0.00000000000000000e+00,0.00000000000000000e+00],"parents":[2147483647,0,0,2,2],"right_children":[2,-1,4,-1,-1],"split_conditions":[2.02500000000000000e+02,-3.65146666765213013e-01,1.62500000000000000e+01,3.49368631839752197e-01,2.77477782219648361e-02],"split_indices":[2,0,1,0,0],"sum_hessian":[5.74667072296142578e+00,2.54827594757080078e+00,3.19839477539062500e+00,2.18685245513916016e+00,1.01154255867004395e+00],"tree_param":{"num_deleted":"0","num_feature":"9","num_nodes":"5","size_leaf_vector":"0"}}]},"name":"gbtree"},"learner_model_param":{"base_score":"0.500000","num_class":"3","num_feature":"9"},"objective":{"name":"multi:softprob","softmax_multiclass_param":{"num_class":"3"}}},"version":[1,1,1]}