{"learner":{"attributes":{},"gradient_booster":{"model":{"gbtree_model_param":{"num_trees":"30","size_leaf_vector":"0"},"tree_info":[0,1,2,0,1,2,0,1,2,0,1,2,0,1,2,0,1,2,0,1,2,0,1,2,0,1,2,0,1,2],"trees":[{"base_weights":[2.33429357409477234e-01,1.42657339572906494e+00,-5.94202935695648193e-01,4.28571403026580811e-01,1.44604313373565674e+00,-6.93086087703704834e-01,1.13513517379760742e+00],"default_left":[false,false,true,false,false,false,false],"id":0,"leaf_child_counts":[0,0,0,0,0,0,0],"left_children":[1,3,5,-1,-1,-1,-1],"loss_changes":[1.15066719055175781e+02,3.06472778320312500e-01,1.25859088897705078e+01,0.00000000000000000e+00,0.00000000000000000e+00,0.00000000000000000e+00,0.00000000000000000e+00],"parents":[2147483647,0,0,1,1,2,2],"right_children":[2,4,6,-1,-1,-1,-1],"split_conditions":[4.23499984741210938e+01,1.60499992370605469e+01,5.00000000000000000e-01,4.28571403026580811e-01,1.44604313373565674e+00,-6.93086087703704834e-01,1.13513517379760742e+00],"split_indices":[0,1,6,0,0,0,0],"sum_hessian":[1.14666656494140625e+02,4.66666641235351562e+01,6.79999923706054688e+01,1.33333325386047363e+00,4.53333320617675781e+01,6.48888854980468750e+01,3.11111092567443848e+00],"tree_param":{"num_deleted":"0","num_feature":"9","num_nodes":"7","size_leaf_vector":"0"}},{"base_weights":[-2.76657104492187500e-01,-7.40029633045196533e-01,5.71045577526092529e-01,-6.47058904170989990e-01,1.36244535446166992e+00],"default_left":[true,false,false,false,false],"id":1,"leaf_child_counts":[0,0,0,0,0],"left_children":[1,-1,3,-1,-1],"loss_changes":[4.58567008972167969e+01,0.00000000000000000e+00,4.08343429565429688e+01,0.00000000000000000e+00,0.00000000000000000e+00],"parents":[2147483647,0,0,2,2],"right_children":[2,-1,4,-1,-1],"split_conditions":[5.00000000000000000e-01,-7.40029633045196533e-01,4.23499984741210938e+01,-6.47058904170989990e-01,1.36244535446166992e+00],"split_indices":[5,0,0,0,0],"sum_hessian":[1.14666656494140625e+02,7.42222213745117188e+01,4.04444427490234375e+01,1.59999990463256836e+01,2.44444427490234375e+01],"tree_param":{"num_deleted":"0","num_feature":"9","num_nodes":"5","size_leaf_vector":"0"}},{"base_weights":[4.32276241481304169e-02,-7.25731968879699707e-01,1.28678297996520996e+00,-2.55448480146469592e-08,-7.39403545856475830e-01,-5.85365891456604004e-01,1.46341466903686523e+00],"default_left":[false,false,true,false,false,false,false],"id":2,"leaf_child_counts":[0,0,0,0,0,0,0],"left_children":[1,3,5,-1,-1,-1,-1],"loss_changes":[1.11539390563964844e+02,7.15480804443359375e-01,1.55902862548828125e+01,0.00000000000000000e+00,0.00000000000000000e+00,0.00000000000000000e+00,0.00000000000000000e+00],"parents":[2147483647,0,0,1,1,2,2],"right_children":[2,4,6,-1,-1,-1,-1],"split_conditions":[2.06500000000000000e+02,1.60499992370605469e+01,5.00000000000000000e-01,-2.55448480146469592e-08,-7.39403545856475830e-01,-5.85365891456604004e-01,1.46341466903686523e+00],"split_indices":[2,1,4,0,0,0,0],"sum_hessian":[1.14666656494140625e+02,7.11111068725585938e+01,4.35555534362792969e+01,1.33333325386047363e+00,6.97777709960937500e+01,3.55555534362792969e+00,3.99999961853027344e+01],"tree_param":{"num_deleted":"0","num_feature":"9","num_nodes":"7","size_leaf_vector":"0"}},{"base_weights":[1.41744121909141541e-01,5.48185348510742188e-01,-4.98010933399200439e-01,-3.75744163990020752e-01,6.06785893440246582e-01,-5.13437628746032715e-01,-1.21103934943675995e-01],"default_left":[true,false,false,false,false,false,false],"id":3,"leaf_child_counts":[0,0,0,0,0,0,0],"left_children":[1,3,5,-1,-1,-1,-1],"loss_changes":[1.63846817016601562e+01,2.30526351928710938e+00,8.08324813842773438e-02,0.00000000000000000e+00,0.00000000000000000e+00,0.00000000000000000e+00,0.00000000000000000e+00],"parents":[2147483647,0,0,1,1,2,2],"right_children":[2,4,6,-1,-1,-1,-1],"split_conditions":[4.42999992370605469e+01,1.55499992370605469e+01,1.99500007629394531e+01,-3.75744163990020752e-01,6.06785893440246582e-01,-5.13437628746032715e-01,-1.21103934943675995e-01],"split_indices":[0,1,1,0,0,0,0],"sum_hessian":[6.09625549316406250e+01,3.73664779663085938e+01,2.35960750579833984e+01,1.90584647655487061e+00,3.54606323242187500e+01,2.23202743530273438e+01,1.27579998970031738e+00],"tree_param":{"num_deleted":"0","num_feature":"9","num_nodes":"7","size_leaf_vector":"0"}},{"base_weights":[-1.74539357423782349e-01,-5.37083089351654053e-01,2.57737845182418823e-01,-3.61134201288223267e-01,5.88856995105743408e-01],"default_left":[true,false,false,false,false],"id":4,"leaf_child_counts":[0,0,0,0,0],"left_children":[1,-1,3,-1,-1],"loss_changes":[8.54772377014160156e+00,0.00000000000000000e+00,5.36661529541015625e+00,0.00000000000000000e+00,0.00000000000000000e+00],"parents":[2147483647,0,0,2,2],"right_children":[2,-1,4,-1,-1],"split_conditions":[5.00000000000000000e-01,-5.37083089351654053e-01,4.46500015258789062e+01,-3.61134201288223267e-01,5.88856995105743408e-01],"split_indices":[5,0,0,0,0],"sum_hessian":[5.26583023071289062e+01,2.85072727203369141e+01,2.41510295867919922e+01,8.38623905181884766e+00,1.57647905349731445e+01],"tree_param":{"num_deleted":"0","num_feature":"9","num_nodes":"5","size_leaf_vector":"0"}},{"base_weights":[9.98800527304410934e-03,-5.41775286197662354e-01,5.06248593330383301e-01,-3.95125240087509155e-01,5.93424320220947266e-01],"default_left":[false,false,true,false,false],"id":5,"leaf_child_counts":[0,0,0,0,0],"left_children":[1,-1,3,-1,-1],"loss_changes":[1.62477264404296875e+01,0.00000000000000000e+00,2.68843746185302734e+00,0.00000000000000000e+00,0.00000000000000000e+00],"parents":[2147483647,0,0,2,2],"right_children":[2,-1,4,-1,-1],"split_conditions":[2.02500000000000000e+02,-5.41775286197662354e-01,5.00000000000000000e-01,-3.95125240087509155e-01,5.93424320220947266e-01],"split_indices":[2,0,4,0,0],"sum_hessian":[5.73359413146972656e+01,2.71063041687011719e+01,3.02296371459960938e+01,2.35429906845092773e+00,2.78753376007080078e+01],"tree_param":{"num_deleted":"0","num_feature":"9","num_nodes":"5","size_leaf_vector":"0"}},{"base_weights":[1.00384734570980072e-01,3.83373349905014038e-01,-4.08838063478469849e-01,-1.93245545029640198e-01,5.31334221363067627e-01,-1.45718529820442200e-01,-4.62176531553268433e-01],"default_left":[true,true,false,false,false,false,false],"id":6,"leaf_child_counts":[0,0,0,0,0,0,0],"left_children":[1,3,5,-1,-1,-1,-1],"loss_changes":[4.45363616943359375e+00,1.78194427490234375e+00,8.89297723770141602e-02,0.00000000000000000e+00,0.00000000000000000e+00,0.00000000000000000e+00,0.00000000000000000e+00],"parents":[2147483647,0,0,1,1,2,2],"right_children":[2,4,6,-1,-1,-1,-1],"split_conditions":[4.42999992370605469e+01,1.67500000000000000e+01,4.60499992370605469e+01,-1.93245545029640198e-01,5.31334221363067627e-01,-1.45718529820442200e-01,-4.62176531553268433e-01],"split_indices":[0,1,0,0,0,0,0],"sum_hessian":[2.88179817199707031e+01,1.86826686859130859e+01,1.01353149414062500e+01,3.75254535675048828e+00,1.49301223754882812e+01,2.33730626106262207e+00,7.79800844192504883e+00],"tree_param":{"num_deleted":"0","num_feature":"9","num_nodes":"7","size_leaf_vector":"0"}},{"base_weights":[-1.15283772349357605e-01,-4.81217086315155029e-01,2.30632171034812927e-01,-3.68905693292617798e-01,3.91194015741348267e-01],"default_left":[true,false,false,false,false],"id":7,"leaf_child_counts":[0,0,0,0,0],"left_children":[1,-1,3,-1,-1],"loss_changes":[3.30817985534667969e+00,0.00000000000000000e+00,1.45927214622497559e+00,0.00000000000000000e+00,0.00000000000000000e+00],"parents":[2147483647,0,0,2,2],"right_children":[2,-1,4,-1,-1],"split_conditions":[5.00000000000000000e-01,-4.81217086315155029e-01,4.08499984741210938e+01,-3.68905693292617798e-01,3.91194015741348267e-01],"split_indices":[5,0,0,0,0],"sum_hessian":[2.42578697204589844e+01,1.15977964401245117e+01,1.26600732803344727e+01,2.40018630027770996e+00,1.02598867416381836e+01],"tree_param":{"num_deleted":"0","num_feature":"9","num_nodes":"5","size_leaf_vector":"0"}},{"base_weights":[-3.14218248240649700e-03,-4.54629868268966675e-01,4.39275026321411133e-01,-4.83378350734710693e-01,-7.63535499572753906e-02,4.95155096054077148e-01,-9.53859686851501465e-02],"default_left":[false,false,false,false,false,false,false],"id":8,"leaf_child_counts":[0,0,0,0,0,0,0],"left_children":[1,3,5,-1,-1,-1,-1],"loss_changes":[5.37737703323364258e+00,1.07951402664184570e-01,4.53578710556030273e-01,0.00000000000000000e+00,0.00000000000000000e+00,0.00000000000000000e+00,0.00000000000000000e+00],"parents":[2147483647,0,0,1,1,2,2],"right_children":[2,4,6,-1,-1,-1,-1],"split_conditions":[2.06500000000000000e+02,2.01500000000000000e+02,1.72000007629394531e+01,-4.83378350734710693e-01,-7.63535499572753906e-02,4.95155096054077148e-01,-9.53859686851501465e-02],"split_indices":[2,2,1,0,0,0,0],"sum_hessian":[2.49212779998779297e+01,1.23205385208129883e+01,1.26007394790649414e+01,1.11921091079711914e+01,1.12842929363250732e+00,1.14752902984619141e+01,1.12544965744018555e+00],"tree_param":{"num_deleted":"0","num_feature":"9","num_nodes":"7","size_leaf_vector":"0"}},{"base_weights":[8.17309692502021790e-02,-2.46686965227127075e-01,3.70490133762359619e-01,3.41209292411804199e-01,-5.74606120586395264e-01,5.14892101287841797e-01,-2.85909473896026611e-01],"default_left":[true,true,false,false,false,false,false],"id":9,"leaf_child_counts":[0,0,0,0,0,0,0],"left_children":[1,3,5,-1,-1,-1,-1],"loss_changes":[1.63564944267272949e+00,1.78054380416870117e+00,1.00642275810241699e+00,0.00000000000000000e+00,0.00000000000000000e+00,0.00000000000000000e+00,0.00000000000000000e+00],"parents":[2147483647,0,0,1,1,2,2],"right_children":[2,4,6,-1,-1,-1,-1],"split_conditions":[1.73499984741210938e+01,4.08000030517578125e+01,4.60499992370605469e+01,3.41209292411804199e-01,-5.74606120586395264e-01,5.14892101287841797e-01,-2.85909473896026611e-01],"split_indices":[1,0,0,0,0,0,0],"sum_hessian":[1.52838163375854492e+01,7.21902036666870117e+00,8.06479549407958984e+00,2.57034897804260254e+00,4.64867162704467773e+00,6.78724431991577148e+00,1.27755093574523926e+00],"tree_param":{"num_deleted":"0","num_feature":"9","num_nodes":"7","size_leaf_vector":"0"}},{"base_weights":[-7.84424692392349243e-02,2.05303698778152466e-01,-4.49405193328857422e-01,-3.64675194025039673e-01,5.04198908805847168e-01,-5.95091342926025391e-01,-1.38982329517602921e-02],"default_left":[false,false,true,false,false,false,false],"id":10,"leaf_child_counts":[0,0,0,0,0,0,0],"left_children":[1,3,5,-1,-1,-1,-1],"loss_changes":[1.53629601001739502e+00,1.62507867813110352e+00,3.88859510421752930e-01,0.00000000000000000e+00,0.00000000000000000e+00,0.00000000000000000e+00,0.00000000000000000e+00],"parents":[2147483647,0,0,1,1,2,2],"right_children":[2,4,6,-1,-1,-1,-1],"split_conditions":[4.06250000000000000e+03,4.08499984741210938e+01,4.89000015258789062e+01,-3.64675194025039673e-01,5.04198908805847168e-01,-5.95091342926025391e-01,-1.38982329517602921e-02],"split_indices":[3,0,0,0,0,0,0],"sum_hessian":[1.27188072204589844e+01,7.45959377288818359e+00,5.25921297073364258e+00,2.49041461944580078e+00,4.96917915344238281e+00,3.66631960868835449e+00,1.59289348125457764e+00],"tree_param":{"num_deleted":"0","num_feature":"9","num_nodes":"7","size_leaf_vector":"0"}},{"base_weights":[-1.98971088975667953e-02,-4.35039758682250977e-01,3.33544075489044189e-01,4.39766317605972290e-01,-1.59728109836578369e-01],"default_left":[false,false,false,false,false],"id":11,"leaf_child_counts":[0,0,0,0,0],"left_children":[1,-1,3,-1,-1],"loss_changes":[2.02373123168945312e+00,0.00000000000000000e+00,4.62255716323852539e-01,0.00000000000000000e+00,0.00000000000000000e+00],"parents":[2147483647,0,0,2,2],"right_children":[2,-1,4,-1,-1],"split_conditions":[2.02500000000000000e+02,-4.35039758682250977e-01,1.76499996185302734e+01,4.39766317605972290e-01,-1.59728109836578369e-01],"split_indices":[2,0,1,0,0],"sum_hessian":[1.18034162521362305e+01,5.32175493240356445e+00,6.48166179656982422e+00,5.42245101928710938e+00,1.05921053886413574e+00],"tree_param":{"num_deleted":"0","num_feature":"9","num_nodes":"5","size_leaf_vector":"0"}},{"base_weights":[4.32522334158420563e-02,-3.15485060214996338e-01,2.35291674733161926e-01,1.39301389455795288e-01,-5.45937836170196533e-01,3.70479017496109009e-01,-1.88339069485664368e-01],"default_left":[true,true,false,false,false,false,false],"id":12,"leaf_child_counts":[0,0,0,0,0,0,0],"left_children":[1,3,5,-1,-1,-1,-1],"loss_changes":[7.36883878707885742e-01,4.72321897745132446e-01,4.61372345685958862e-01,0.00000000000000000e+00,0.00000000000000000e+00,0.00000000000000000e+00,0.00000000000000000e+00],"parents":[2147483647,0,0,1,1,2,2],"right_children":[2,4,6,-1,-1,-1,-1],"split_conditions":[1.67500000000000000e+01,4.02000007629394531e+01,4.46500015258789062e+01,1.39301389455795288e-01,-5.45937836170196533e-01,3.70479017496109009e-01,-1.88339069485664368e-01],"split_indices":[1,0,0,0,0,0,0],"sum_hessian":[8.61876106262207031e+00,2.78097534179687500e+00,5.83778572082519531e+00,1.06829106807708740e+00,1.71268415451049805e+00,4.52064323425292969e+00,1.31714248657226562e+00],"tree_param":{"num_deleted":"0","num_feature":"9","num_nodes":"7","size_leaf_vector":"0"}},{"base_weights":[-2.58304495364427567e-02,3.08344513177871704e-01,-2.37417116761207581e-01,3.83543223142623901e-01,7.84551277756690979e-02,-4.59008902311325073e-01,6.95890709757804871e-02],"default_left":[false,false,true,false,false,false,false],"id":13,"leaf_child_counts":[0,0,0,0,0,0,0],"left_children":[1,3,5,-1,-1,-1,-1],"loss_changes":[6.83130502700805664e-01,3.52427661418914795e-02,4.29700911045074463e-01,0.00000000000000000e+00,0.00000000000000000e+00,0.00000000000000000e+00,0.00000000000000000e+00],"parents":[2147483647,0,0,1,1,2,2],"right_children":[2,4,6,-1,-1,-1,-1],"split_conditions":[3.68750000000000000e+03,1.75499992370605469e+01,4.59000015258789062e+01,3.83543223142623901e-01,7.84551277756690979e-02,-4.59008902311325073e-01,6.95890709757804871e-02],"split_indices":[3,1,0,0,0,0,0],"sum_hessian":[7.62608337402343750e+00,2.77927136421203613e+00,4.84681177139282227e+00,1.59059357643127441e+00,1.18867778778076172e+00,2.52743792533874512e+00,2.31937408447265625e+00],"tree_param":{"num_deleted":"0","num_feature":"9","num_nodes":"7","size_leaf_vector":"0"}},{"base_weights":[-2.94089633971452713e-02,-3.32884639501571655e-01,2.88037329912185669e-01],"default_left":[false,false,false],"id":14,"leaf_child_counts":[0,0,0],"left_children":[1,-1,-1],"loss_changes":[7.28818297386169434e-01,0.00000000000000000e+00,0.00000000000000000e+00],"parents":[2147483647,0,0],"right_children":[2,-1,-1],"split_conditions":[2.07500000000000000e+02,-3.32884639501571655e-01,2.88037329912185669e-01],"split_indices":[2,0,0],"sum_hessian":[5.56999444961547852e+00,2.82279562950134277e+00,2.74719882011413574e+00],"tree_param":{"num_deleted":"0","num_feature":"9","num_nodes":"3","size_leaf_vector":"0"}},{"base_weights":[-3.38187813758850098e-03,3.18748533725738525e-01,-1.53903186321258545e-01,-4.21198964118957520e-01,2.05569401383399963e-01],"default_left":[false,false,true,false,false],"id":15,"leaf_child_counts":[0,0,0,0,0],"left_children":[1,-1,3,-1,-1],"loss_changes":[4.00824904441833496e-01,0.00000000000000000e+00,6.26473665237426758e-01,0.00000000000000000e+00,0.00000000000000000e+00],"parents":[2147483647,0,0,2,2],"right_children":[2,-1,4,-1,-1],"split_conditions":[4.08499984741210938e+01,3.18748533725738525e-01,1.82500000000000000e+01,-4.21198964118957520e-01,2.05569401383399963e-01],"split_indices":[0,0,1,0,0],"sum_hessian":[6.25482940673828125e+00,1.63599932193756104e+00,4.61883020401000977e+00,2.55056977272033691e+00,2.06826019287109375e+00],"tree_param":{"num_deleted":"0","num_feature":"9","num_nodes":"5","size_leaf_vector":"0"}},{"base_weights":[2.22965572029352188e-02,-3.31313401460647583e-01,2.15665102005004883e-01,-5.79028986394405365e-02,4.10915315151214600e-01],"default_left":[true,false,true,false,false],"id":16,"leaf_child_counts":[0,0,0,0,0],"left_children":[1,-1,3,-1,-1],"loss_changes":[5.53828477859497070e-01,0.00000000000000000e+00,2.99752026796340942e-01,0.00000000000000000e+00,0.00000000000000000e+00],"parents":[2147483647,0,0,2,2],"right_children":[2,-1,4,-1,-1],"split_conditions":[5.00000000000000000e-01,-3.31313401460647583e-01,5.00000000000000000e-01,-5.79028986394405365e-02,4.10915315151214600e-01],"split_indices":[5,0,7,0,0],"sum_hessian":[6.05464506149291992e+00,1.88825166225433350e+00,4.16639328002929688e+00,2.02815604209899902e+00,2.13823747634887695e+00],"tree_param":{"num_deleted":"0","num_feature":"9","num_nodes":"5","size_leaf_vector":"0"}},{"base_weights":[-2.85329744219779968e-02,-3.15782099962234497e-01,2.32730641961097717e-01],"default_left":[true,false,false],"id":17,"leaf_child_counts":[0,0,0],"left_children":[1,-1,-1],"loss_changes":[4.22670930624008179e-01,0.00000000000000000e+00,0.00000000000000000e+00],"parents":[2147483647,0,0],"right_children":[2,-1,-1],"split_conditions":[5.00000000000000000e-01,-3.15782099962234497e-01,2.32730641961097717e-01],"split_indices":[4,0,0],"sum_hessian":[3.65275478363037109e+00,1.64046037197113037e+00,2.01229429244995117e+00],"tree_param":{"num_deleted":"0","num_feature":"9","num_nodes":"3","size_leaf_vector":"0"}},{"base_weights":[3.28465215861797333e-02,1.48909986019134521e-01,-1.93239867687225342e-01,-9.22380834817886353e-02,3.12527298927307129e-01],"default_left":[false,false,false,false,false],"id":18,"leaf_child_counts":[0,0,0,0,0],"left_children":[1,3,-1,-1,-1],"loss_changes":[1.81366980075836182e-01,2.02722311019897461e-01,0.00000000000000000e+00,0.00000000000000000e+00,0.00000000000000000e+00],"parents":[2147483647,0,0,1,1],"right_children":[2,4,-1,-1,-1],"split_conditions":[4.42999992370605469e+01,3.42500000000000000e+03,-1.93239867687225342e-01,-9.22380834817886353e-02,3.12527298927307129e-01],"split_indices":[0,3,0,0,0],"sum_hessian":[4.81514835357666016e+00,3.40732526779174805e+00,1.40782284736633301e+00,1.55368185043334961e+00,1.85364353656768799e+00],"tree_param":{"num_deleted":"0","num_feature":"9","num_nodes":"5","size_leaf_vector":"0"}},{"base_weights":[1.00662745535373688e-02,-2.65633583068847656e-01,1.37307867407798767e-01,2.38534361124038696e-01,-6.18238933384418488e-02],"default_left":[true,false,false,false,false],"id":19,"leaf_child_counts":[0,0,0,0,0],"left_children":[1,-1,3,-1,-1],"loss_changes":[2.33487337827682495e-01,0.00000000000000000e+00,1.05492539703845978e-01,0.00000000000000000e+00,0.00000000000000000e+00],"parents":[2147483647,0,0,2,2],"right_children":[2,-1,4,-1,-1],"split_conditions":[5.00000000000000000e-01,-2.65633583068847656e-01,4.07500000000000000e+03,2.38534361124038696e-01,-6.18238933384418488e-02],"split_indices":[5,0,3,0,0],"sum_hessian":[4.61604976654052734e+00,1.11421036720275879e+00,3.50183939933776855e+00,2.19046711921691895e+00,1.31137239933013916e+00],"tree_param":{"num_deleted":"0","num_feature":"9","num_nodes":"5","size_leaf_vector":"0"}},{"base_weights":[-7.30959028005599976e-02,-2.54231512546539307e-01,1.66989207267761230e-01],"default_left":[false,false,false],"id":20,"leaf_child_counts":[0,0,0],"left_children":[1,-1,-1],"loss_changes":[1.89727798104286194e-01,0.00000000000000000e+00,0.00000000000000000e+00],"parents":[2147483647,0,0],"right_children":[2,-1,-1],"split_conditions":[4.56250000000000000e+03,-2.54231512546539307e-01,1.66989207267761230e-01],"split_indices":[3,0,0],"sum_hessian":[2.38654375076293945e+00,1.32668495178222656e+00,1.05985879898071289e+00],"tree_param":{"num_deleted":"0","num_feature":"9","num_nodes":"3","size_leaf_vector":"0"}},{"base_weights":[4.04627732932567596e-02,2.39997103810310364e-01,-8.89359191060066223e-02,-2.85730391740798950e-01,1.25170364975929260e-01],"default_left":[true,false,true,false,false],"id":21,"leaf_child_counts":[0,0,0,0,0],"left_children":[1,-1,3,-1,-1],"loss_changes":[1.51139587163925171e-01,0.00000000000000000e+00,1.94995924830436707e-01,0.00000000000000000e+00,0.00000000000000000e+00],"parents":[2147483647,0,0,2,2],"right_children":[2,-1,4,-1,-1],"split_conditions":[4.08499984741210938e+01,2.39997103810310364e-01,5.00000000000000000e-01,-2.85730391740798950e-01,1.25170364975929260e-01],"split_indices":[0,0,8,0,0],"sum_hessian":[4.02702713012695312e+00,1.24795508384704590e+00,2.77907180786132812e+00,1.27376902103424072e+00,1.50530290603637695e+00],"tree_param":{"num_deleted":"0","num_feature":"9","num_nodes":"5","size_leaf_vector":"0"}},{"base_weights":[3.38657246902585030e-03,-8.46949890255928040e-02,1.31118595600128174e-01,1.05226241052150726e-01,-2.43095025420188904e-01],"default_left":[true,false,false,false,false],"id":22,"leaf_child_counts":[0,0,0,0,0],"left_children":[1,3,-1,-1,-1],"loss_changes":[6.49677813053131104e-02,1.29099249839782715e-01,0.00000000000000000e+00,0.00000000000000000e+00,0.00000000000000000e+00],"parents":[2147483647,0,0,1,1],"right_children":[2,4,-1,-1,-1],"split_conditions":[4.51500015258789062e+01,3.42500000000000000e+03,1.31118595600128174e-01,1.05226241052150726e-01,-2.43095025420188904e-01],"split_indices":[0,3,0,0,0],"sum_hessian":[3.78743910789489746e+00,2.44106173515319824e+00,1.34637737274169922e+00,1.26273667812347412e+00,1.17832505702972412e+00],"tree_param":{"num_deleted":"0","num_feature":"9","num_nodes":"5","size_leaf_vector":"0"}},{"base_weights":[-7.80934467911720276e-02],"default_left":[false],"id":23,"leaf_child_counts":[0],"left_children":[-1],"loss_changes":[0.00000000000000000e+00],"parents":[2147483647],"right_children":[-1],"split_conditions":[-7.80934467911720276e-02],"split_indices":[0],"sum_hessian":[1.81224477291107178e+00],"tree_param":{"num_deleted":"0","num_feature":"9","num_nodes":"1","size_leaf_vector":"0"}},{"base_weights":[2.01686751097440720e-02,1.24787986278533936e-01,-1.59277796745300293e-01,-2.44087725877761841e-02,2.03247383236885071e-01],"default_left":[false,false,false,false,false],"id":24,"leaf_child_counts":[0,0,0,0,0],"left_children":[1,3,-1,-1,-1],"loss_changes":[1.02300979197025299e-01,4.39908802509307861e-02,0.00000000000000000e+00,0.00000000000000000e+00,0.00000000000000000e+00],"parents":[2147483647,0,0,1,1],"right_children":[2,4,-1,-1,-1],"split_conditions":[1.97500000000000000e+02,1.73499984741210938e+01,-1.59277796745300293e-01,-2.44087725877761841e-02,2.03247383236885071e-01],"split_indices":[2,1,0,0,0],"sum_hessian":[3.39048290252685547e+00,2.33420825004577637e+00,1.05627465248107910e+00,1.04188334941864014e+00,1.29232478141784668e+00],"tree_param":{"num_deleted":"0","num_feature":"9","num_nodes":"5","size_leaf_vector":"0"}},{"base_weights":[-7.66123831272125244e-03,7.83352106809616089e-02,-1.06840237975120544e-01],"default_left":[false,false,false],"id":25,"leaf_child_counts":[0,0,0],"left_children":[1,-1,-1],"loss_changes":[4.48241196572780609e-02,0.00000000000000000e+00,0.00000000000000000e+00],"parents":[2147483647,0,0],"right_children":[2,-1,-1],"split_conditions":[4.06250000000000000e+03,7.83352106809616089e-02,-1.06840237975120544e-01],"split_indices":[3,0,0],"sum_hessian":[3.27419257164001465e+00,1.86620271205902100e+00,1.40798985958099365e+00],"tree_param":{"num_deleted":"0","num_feature":"9","num_nodes":"3","size_leaf_vector":"0"}},{"base_weights":[-2.08876710385084152e-02],"default_left":[false],"id":26,"leaf_child_counts":[0],"left_children":[-1],"loss_changes":[0.00000000000000000e+00],"parents":[2147483647],"right_children":[-1],"split_conditions":[-2.08876710385084152e-02],"split_indices":[0],"sum_hessian":[1.67176127433776855e+00],"tree_param":{"num_deleted":"0","num_feature":"9","num_nodes":"1","size_leaf_vector":"0"}},{"base_weights":[1.79570391774177551e-02,2.01045811176300049e-01,-1.06045365333557129e-01,-2.17516362667083740e-01,4.93420660495758057e-02],"default_left":[true,false,false,false,false],"id":27,"leaf_child_counts":[0,0,0,0,0],"left_children":[1,-1,3,-1,-1],"loss_changes":[1.16080909967422485e-01,0.00000000000000000e+00,6.51757270097732544e-02,0.00000000000000000e+00,0.00000000000000000e+00],"parents":[2147483647,0,0,2,2],"right_children":[2,-1,4,-1,-1],"split_conditions":[4.08499984741210938e+01,2.01045811176300049e-01,1.82500000000000000e+01,-2.17516362667083740e-01,4.93420660495758057e-02],"split_indices":[0,0,1,0,0],"sum_hessian":[3.17385673522949219e+00,1.03071177005767822e+00,2.14314508438110352e+00,1.01510322093963623e+00,1.12804174423217773e+00],"tree_param":{"num_deleted":"0","num_feature":"9","num_nodes":"5","size_leaf_vector":"0"}},{"base_weights":[3.16589535214006901e-03,-7.73289427161216736e-02,1.09477810561656952e-01],"default_left":[true,false,false],"id":28,"leaf_child_counts":[0,0,0],"left_children":[1,-1,-1],"loss_changes":[4.34578470885753632e-02,0.00000000000000000e+00,0.00000000000000000e+00],"parents":[2147483647,0,0],"right_children":[2,-1,-1],"split_conditions":[4.58499984741210938e+01,-7.73289427161216736e-02,1.09477810561656952e-01],"split_indices":[0,0,0],"sum_hessian":[3.08902096748352051e+00,1.91311442852020264e+00,1.17590653896331787e+00],"tree_param":{"num_deleted":"0","num_feature":"9","num_nodes":"3","size_leaf_vector":"0"}},{"base_weights":[-3.41046117246150970e-02],"default_left":[false],"id":29,"leaf_child_counts":[0],"left_children":[-1],"loss_changes":[0.00000000000000000e+00],"parents":[2147483647],"right_children":[-1],"split_conditions":[-3.41046117246150970e-02],"split_indices":[0],"sum_hessian":[1.57723271846771240e+00],"tree_param":{"num_deleted":"0","num_feature":"9","num_nodes":"1","size_leaf_vector":"0"}}]},"name":"gbtree"},"learner_model_param":{"base_score":"0.500000","num_class":"3","num_feature":"9"},"objective":{"name":"multi:softprob","softmax_multiclass_param":{"num_class":"3"}}},"version":[1,1,1]}