{"learner":{"attributes":{},"gradient_booster":{"model":{"gbtree_model_param":{"num_trees":"30","size_leaf_vector":"0"},"tree_info":[0,1,2,0,1,2,0,1,2,0,1,2,0,1,2,0,1,2,0,1,2,0,1,2,0,1,2,0,1,2],"trees":[{"base_weights":[2.07492753863334656e-01,1.38129496574401855e+00,-5.68720459938049316e-01,-4.28571462631225586e-01,1.44444441795349121e+00,-6.78868591785430908e-01,1.17073166370391846e+00],"default_left":[false,false,true,false,false,false,false],"id":0,"leaf_child_counts":[0,0,0,0,0,0,0],"left_children":[1,3,5,-1,-1,-1,-1],"loss_changes":[1.06171859741210938e+02,5.91458892822265625e+00,1.42704601287841797e+01,0.00000000000000000e+00,0.00000000000000000e+00,0.00000000000000000e+00,0.00000000000000000e+00],"parents":[2147483647,0,0,1,1,2,2],"right_children":[2,4,6,-1,-1,-1,-1],"split_conditions":[4.23499984741210938e+01,1.51000003814697266e+01,5.00000000000000000e-01,-4.28571462631225586e-01,1.44444441795349121e+00,-6.78868591785430908e-01,1.17073166370391846e+00],"split_indices":[0,1,6,0,0,0,0],"sum_hessian":[1.14666656494140625e+02,4.53333320617675781e+01,6.93333282470703125e+01,1.33333325386047363e+00,4.39999961853027344e+01,6.57777709960937500e+01,3.55555534362792969e+00],"tree_param":{"num_deleted":"0","num_feature":"9","num_nodes":"7","size_leaf_vector":"0"}},{"base_weights":[-2.85302639007568359e-01,-7.40029633045196533e-01,5.46916842460632324e-01,-6.52173995971679688e-01,1.39819002151489258e+00],"default_left":[true,false,false,false,false],"id":1,"leaf_child_counts":[0,0,0,0,0],"left_children":[1,-1,3,-1,-1],"loss_changes":[4.41767768859863281e+01,0.00000000000000000e+00,4.32164344787597656e+01,0.00000000000000000e+00,0.00000000000000000e+00],"parents":[2147483647,0,0,2,2],"right_children":[2,-1,4,-1,-1],"split_conditions":[5.00000000000000000e-01,-7.40029633045196533e-01,4.23499984741210938e+01,-6.52173995971679688e-01,1.39819002151489258e+00],"split_indices":[5,0,0,0,0],"sum_hessian":[1.14666656494140625e+02,7.42222213745117188e+01,4.04444427490234375e+01,1.68888874053955078e+01,2.35555534362792969e+01],"tree_param":{"num_deleted":"0","num_feature":"9","num_nodes":"5","size_leaf_vector":"0"}},{"base_weights":[7.78097584843635559e-02,-7.25581467151641846e-01,1.35555553436279297e+00,-2.55448480146469592e-08,-7.39336550235748291e-01,-5.17241418361663818e-01,1.46493506431579590e+00],"default_left":[false,false,true,false,false,false,false],"id":2,"leaf_child_counts":[0,0,0,0,0,0,0],"left_children":[1,3,5,-1,-1,-1,-1],"loss_changes":[1.19718826293945312e+02,7.15267181396484375e-01,9.97577667236328125e+00,0.00000000000000000e+00,0.00000000000000000e+00,0.00000000000000000e+00,0.00000000000000000e+00],"parents":[2147483647,0,0,1,1,2,2],"right_children":[2,4,6,-1,-1,-1,-1],"split_conditions":[2.07500000000000000e+02,1.59499998092651367e+01,5.00000000000000000e-01,-2.55448480146469592e-08,-7.39336550235748291e-01,-5.17241418361663818e-01,1.46493506431579590e+00],"split_indices":[2,1,4,0,0,0,0],"sum_hessian":[1.14666656494140625e+02,7.06666641235351562e+01,4.39999961853027344e+01,1.33333325386047363e+00,6.93333282470703125e+01,2.22222208976745605e+00,4.17777748107910156e+01],"tree_param":{"num_deleted":"0","num_feature":"9","num_nodes":"7","size_leaf_vector":"0"}},{"base_weights":[1.26217246055603027e-01,5.44126451015472412e-01,-4.51283872127532959e-01,-3.34986567497253418e-01,5.91539621353149414e-01,-4.98309224843978882e-01,3.39744985103607178e-01],"default_left":[true,false,true,false,false,false,false],"id":3,"leaf_child_counts":[0,0,0,0,0,0,0],"left_children":[1,3,5,-1,-1,-1,-1],"loss_changes":[1.51456279754638672e+01,1.71001338958740234e+00,1.15381050109863281e+00,0.00000000000000000e+00,0.00000000000000000e+00,0.00000000000000000e+00,0.00000000000000000e+00],"parents":[2147483647,0,0,1,1,2,2],"right_children":[2,4,6,-1,-1,-1,-1],"split_conditions":[4.32500000000000000e+01,1.51000003814697266e+01,5.00000000000000000e-01,-3.34986567497253418e-01,5.91539621353149414e-01,-4.98309224843978882e-01,3.39744985103607178e-01],"split_indices":[0,1,6,0,0,0,0],"sum_hessian":[6.07381401062011719e+01,3.52716064453125000e+01,2.54665374755859375e+01,1.49457752704620361e+00,3.37770271301269531e+01,2.43868312835693359e+01,1.07970654964447021e+00],"tree_param":{"num_deleted":"0","num_feature":"9","num_nodes":"7","size_leaf_vector":"0"}},{"base_weights":[-1.78107321262359619e-01,-5.41947424411773682e-01,2.71202057600021362e-01,-4.72427517175674438e-01,5.22184848785400391e-01],"default_left":[true,false,false,false,false],"id":4,"leaf_child_counts":[0,0,0,0,0],"left_children":[1,-1,3,-1,-1],"loss_changes":[8.86900901794433594e+00,0.00000000000000000e+00,4.82664632797241211e+00,0.00000000000000000e+00,0.00000000000000000e+00],"parents":[2147483647,0,0,2,2],"right_children":[2,-1,4,-1,-1],"split_conditions":[5.00000000000000000e-01,-5.41947424411773682e-01,4.08000030517578125e+01,-4.72427517175674438e-01,5.22184848785400391e-01],"split_indices":[5,0,0,0,0],"sum_hessian":[5.23533401489257812e+01,2.88141479492187500e+01,2.35391941070556641e+01,5.71729087829589844e+00,1.78219032287597656e+01],"tree_param":{"num_deleted":"0","num_feature":"9","num_nodes":"5","size_leaf_vector":"0"}},{"base_weights":[2.90375482290983200e-02,-5.16271054744720459e-01,5.51802456378936768e-01,7.10719078779220581e-02,-5.41133046150207520e-01,-2.98592358827590942e-01,5.93456327915191650e-01],"default_left":[false,false,true,false,false,false,false],"id":5,"leaf_child_counts":[0,0,0,0,0,0,0],"left_children":[1,3,5,-1,-1,-1,-1],"loss_changes":[1.70743217468261719e+01,4.66942787170410156e-01,1.25945854187011719e+00,0.00000000000000000e+00,0.00000000000000000e+00,0.00000000000000000e+00,0.00000000000000000e+00],"parents":[2147483647,0,0,1,1,2,2],"right_children":[2,4,6,-1,-1,-1,-1],"split_conditions":[2.07500000000000000e+02,1.59499998092651367e+01,5.00000000000000000e-01,7.10719078779220581e-02,-5.41133046150207520e-01,-2.98592358827590942e-01,5.93456327915191650e-01],"split_indices":[2,1,4,0,0,0,0],"sum_hessian":[5.78962287902832031e+01,2.83431911468505859e+01,2.95530395507812500e+01,1.07555127143859863e+00,2.72676391601562500e+01,1.09193587303161621e+00,2.84611034393310547e+01],"tree_param":{"num_deleted":"0","num_feature":"9","num_nodes":"7","size_leaf_vector":"0"}},{"base_weights":[1.14016331732273102e-01,4.32681918144226074e-01,-3.41573625802993774e-01,-1.57148331403732300e-01,5.58650195598602295e-01,-4.36146259307861328e-01,3.09914529323577881e-01],"default_left":[false,false,false,false,false,false,false],"id":6,"leaf_child_counts":[0,0,0,0,0,0,0],"left_children":[1,3,5,-1,-1,-1,-1],"loss_changes":[4.41678857803344727e+00,1.40613555908203125e+00,9.15256738662719727e-01,0.00000000000000000e+00,0.00000000000000000e+00,0.00000000000000000e+00,0.00000000000000000e+00],"parents":[2147483647,0,0,1,1,2,2],"right_children":[2,4,6,-1,-1,-1,-1],"split_conditions":[4.32500000000000000e+01,1.67500000000000000e+01,2.01499996185302734e+01,-1.57148331403732300e-01,5.58650195598602295e-01,-4.36146259307861328e-01,3.09914529323577881e-01],"split_indices":[0,1,1,0,0,0,0],"sum_hessian":[2.84046783447265625e+01,1.67435607910156250e+01,1.16611185073852539e+01,2.90301990509033203e+00,1.38405408859252930e+01,1.04715633392333984e+01,1.18955564498901367e+00],"tree_param":{"num_deleted":"0","num_feature":"9","num_nodes":"7","size_leaf_vector":"0"}},{"base_weights":[-1.50150224566459656e-01,-4.91667091846466064e-01,2.10351273417472839e-01,-2.28371694684028625e-01,4.77809220552444458e-01],"default_left":[true,false,false,false,false],"id":7,"leaf_child_counts":[0,0,0,0,0],"left_children":[1,-1,3,-1,-1],"loss_changes":[3.14976310729980469e+00,0.00000000000000000e+00,1.60373425483703613e+00,0.00000000000000000e+00,0.00000000000000000e+00],"parents":[2147483647,0,0,2,2],"right_children":[2,-1,4,-1,-1],"split_conditions":[5.00000000000000000e-01,-4.91667091846466064e-01,4.33499984741210938e+01,-2.28371694684028625e-01,4.77809220552444458e-01],"split_indices":[5,0,0,0,0],"sum_hessian":[2.37433891296386719e+01,1.20058984756469727e+01,1.17374897003173828e+01,4.50078868865966797e+00,7.23670101165771484e+00],"tree_param":{"num_deleted":"0","num_feature":"9","num_nodes":"5","size_leaf_vector":"0"}},{"base_weights":[1.37493023648858070e-02,-4.90537852048873901e-01,4.22441750764846802e-01,-2.85333365201950073e-01,5.02723634243011475e-01],"default_left":[false,false,true,false,false],"id":8,"leaf_child_counts":[0,0,0,0,0],"left_children":[1,-1,3,-1,-1],"loss_changes":[5.64273834228515625e+00,0.00000000000000000e+00,1.00171685218811035e+00,0.00000000000000000e+00,0.00000000000000000e+00],"parents":[2147483647,0,0,2,2],"right_children":[2,-1,4,-1,-1],"split_conditions":[2.02500000000000000e+02,-4.90537852048873901e-01,5.00000000000000000e-01,-2.85333365201950073e-01,5.02723634243011475e-01],"split_indices":[2,0,4,0,0],"sum_hessian":[2.53734016418457031e+01,1.12686777114868164e+01,1.41047248840332031e+01,1.17669403553009033e+00,1.29280309677124023e+01],"tree_param":{"num_deleted":"0","num_feature":"9","num_nodes":"5","size_leaf_vector":"0"}},{"base_weights":[8.98262709379196167e-02,-3.31043779850006104e-01,3.34883838891983032e-01,2.55397140979766846e-01,-5.72953641414642334e-01,4.78659927845001221e-01,-3.05339276790618896e-01],"default_left":[true,true,false,false,false,false,false],"id":9,"leaf_child_counts":[0,0,0,0,0,0,0],"left_children":[1,3,5,-1,-1,-1,-1],"loss_changes":[1.70583438873291016e+00,1.02501225471496582e+00,1.09156835079193115e+00,0.00000000000000000e+00,0.00000000000000000e+00,0.00000000000000000e+00,0.00000000000000000e+00],"parents":[2147483647,0,0,1,1,2,2],"right_children":[2,4,6,-1,-1,-1,-1],"split_conditions":[1.67500000000000000e+01,4.02000007629394531e+01,4.60499992370605469e+01,2.55397140979766846e-01,-5.72953641414642334e-01,4.78659927845001221e-01,-3.05339276790618896e-01],"split_indices":[1,0,0,0,0,0,0],"sum_hessian":[1.44645481109619141e+01,5.19374895095825195e+00,9.27079963684082031e+00,1.50048959255218506e+00,3.69325923919677734e+00,7.77672147750854492e+00,1.49407815933227539e+00],"tree_param":{"num_deleted":"0","num_feature":"9","num_nodes":"7","size_leaf_vector":"0"}},{"base_weights":[-9.76324528455734253e-02,-4.36529248952865601e-01,1.97604134678840637e-01,-2.89977192878723145e-01,3.48507791757583618e-01],"default_left":[true,false,false,false,false],"id":10,"leaf_child_counts":[0,0,0,0,0],"left_children":[1,-1,3,-1,-1],"loss_changes":[1.35384023189544678e+00,0.00000000000000000e+00,6.49872303009033203e-01,0.00000000000000000e+00,0.00000000000000000e+00],"parents":[2147483647,0,0,2,2],"right_children":[2,-1,4,-1,-1],"split_conditions":[5.00000000000000000e-01,-4.36529248952865601e-01,4.08000030517578125e+01,-2.89977192878723145e-01,3.48507791757583618e-01],"split_indices":[5,0,0,0,0],"sum_hessian":[1.16688680648803711e+01,5.20991945266723633e+00,6.45894813537597656e+00,1.30873143672943115e+00,5.15021657943725586e+00],"tree_param":{"num_deleted":"0","num_feature":"9","num_nodes":"5","size_leaf_vector":"0"}},{"base_weights":[-1.21516790241003036e-02,-4.37337905168533325e-01,3.42705219984054565e-01,4.37709748744964600e-01,-1.18999503552913666e-01],"default_left":[false,false,false,false,false],"id":11,"leaf_child_counts":[0,0,0,0,0],"left_children":[1,-1,3,-1,-1],"loss_changes":[2.03995752334594727e+00,0.00000000000000000e+00,3.76193761825561523e-01,0.00000000000000000e+00,0.00000000000000000e+00],"parents":[2147483647,0,0,2,2],"right_children":[2,-1,4,-1,-1],"split_conditions":[2.02500000000000000e+02,-4.37337905168533325e-01,1.70499992370605469e+01,4.37709748744964600e-01,-1.18999503552913666e-01],"split_indices":[2,0,1,0,0],"sum_hessian":[1.15270175933837891e+01,5.13812685012817383e+00,6.38889026641845703e+00,5.34170389175415039e+00,1.04718661308288574e+00],"tree_param":{"num_deleted":"0","num_feature":"9","num_nodes":"5","size_leaf_vector":"0"}},{"base_weights":[6.05477914214134216e-02,-2.87642300128936768e-01,3.60720366239547729e-01,2.66688078641891479e-01,-5.24327993392944336e-01,5.16591191291809082e-01,-5.15075363218784332e-02],"default_left":[true,false,false,false,false,false,false],"id":12,"leaf_child_counts":[0,0,0,0,0,0,0],"left_children":[1,3,5,-1,-1,-1,-1],"loss_changes":[1.03916621208190918e+00,7.56461858749389648e-01,3.63940596580505371e-01,0.00000000000000000e+00,0.00000000000000000e+00,0.00000000000000000e+00,0.00000000000000000e+00],"parents":[2147483647,0,0,1,1,2,2],"right_children":[2,4,6,-1,-1,-1,-1],"split_conditions":[1.73999996185302734e+01,4.08000030517578125e+01,4.46500015258789062e+01,2.66688078641891479e-01,-5.24327993392944336e-01,5.16591191291809082e-01,-5.15075363218784332e-02],"split_indices":[1,0,0,0,0,0,0],"sum_hessian":[7.94980430603027344e+00,3.69984841346740723e+00,4.24995613098144531e+00,1.06912982463836670e+00,2.63071846961975098e+00,2.90017771720886230e+00,1.34977841377258301e+00],"tree_param":{"num_deleted":"0","num_feature":"9","num_nodes":"7","size_leaf_vector":"0"}},{"base_weights":[-4.52060289680957794e-02,2.43518307805061340e-01,-4.20986026525497437e-01,-2.65143662691116333e-01,4.58190977573394775e-01,-5.27140021324157715e-01,-6.83016031980514526e-02],"default_left":[false,false,false,false,false,false,false],"id":13,"leaf_child_counts":[0,0,0,0,0,0,0],"left_children":[1,3,5,-1,-1,-1,-1],"loss_changes":[9.32375550270080566e-01,6.62977218627929688e-01,1.02136850357055664e-01,0.00000000000000000e+00,0.00000000000000000e+00,0.00000000000000000e+00,0.00000000000000000e+00],"parents":[2147483647,0,0,1,1,2,2],"right_children":[2,4,6,-1,-1,-1,-1],"split_conditions":[4.06250000000000000e+03,4.08000030517578125e+01,4.70500030517578125e+01,-2.65143662691116333e-01,4.58190977573394775e-01,-5.27140021324157715e-01,-6.83016031980514526e-02],"split_indices":[3,0,0,0,0,0,0],"sum_hessian":[6.64868211746215820e+00,3.95889592170715332e+00,2.68978643417358398e+00,1.10515344142913818e+00,2.85374236106872559e+00,1.68728280067443848e+00,1.00250363349914551e+00],"tree_param":{"num_deleted":"0","num_feature":"9","num_nodes":"7","size_leaf_vector":"0"}},{"base_weights":[-3.07995788753032684e-02,-3.36453676223754883e-01,2.94030100107192993e-01],"default_left":[false,false,false],"id":14,"leaf_child_counts":[0,0,0],"left_children":[1,-1,-1],"loss_changes":[7.31135189533233643e-01,0.00000000000000000e+00,0.00000000000000000e+00],"parents":[2147483647,0,0],"right_children":[2,-1,-1],"split_conditions":[2.07500000000000000e+02,-3.36453676223754883e-01,2.94030100107192993e-01],"split_indices":[2,0,0],"sum_hessian":[5.36757230758666992e+00,2.74697446823120117e+00,2.62059783935546875e+00],"tree_param":{"num_deleted":"0","num_feature":"9","num_nodes":"3","size_leaf_vector":"0"}},{"base_weights":[6.41736462712287903e-02,-2.30583399534225464e-01,2.70883828401565552e-01,4.07784044742584229e-01,-2.42769848555326462e-02],"default_left":[false,false,false,false,false],"id":15,"leaf_child_counts":[0,0,0,0,0],"left_children":[1,-1,3,-1,-1],"loss_changes":[4.35874760150909424e-01,0.00000000000000000e+00,1.74041956663131714e-01,0.00000000000000000e+00,0.00000000000000000e+00],"parents":[2147483647,0,0,2,2],"right_children":[2,-1,4,-1,-1],"split_conditions":[1.73999996185302734e+01,-2.30583399534225464e-01,4.46500015258789062e+01,4.07784044742584229e-01,-2.42769848555326462e-02],"split_indices":[1,0,0,0,0],"sum_hessian":[5.12863588333129883e+00,2.06647229194641113e+00,3.06216359138488770e+00,1.83124017715454102e+00,1.23092353343963623e+00],"tree_param":{"num_deleted":"0","num_feature":"9","num_nodes":"5","size_leaf_vector":"0"}},{"base_weights":[-3.50640639662742615e-02,2.35138788819313049e-01,-2.65466153621673584e-01,-3.93880069255828857e-01,2.29615028947591782e-02],"default_left":[false,false,true,false,false],"id":16,"leaf_child_counts":[0,0,0,0,0],"left_children":[1,-1,3,-1,-1],"loss_changes":[4.08401966094970703e-01,0.00000000000000000e+00,1.37542530894279480e-01,0.00000000000000000e+00,0.00000000000000000e+00],"parents":[2147483647,0,0,2,2],"right_children":[2,-1,4,-1,-1],"split_conditions":[3.86250000000000000e+03,2.35138788819313049e-01,4.70500030517578125e+01,-3.93880069255828857e-01,2.29615028947591782e-02],"split_indices":[3,0,0,0,0],"sum_hessian":[4.55744743347167969e+00,2.08809089660644531e+00,2.46935653686523438e+00,1.45565676689147949e+00,1.01369965076446533e+00],"tree_param":{"num_deleted":"0","num_feature":"9","num_nodes":"5","size_leaf_vector":"0"}},{"base_weights":[-4.84620369970798492e-02,1.99373245239257812e-01,-2.76136994361877441e-01],"default_left":[true,false,false],"id":17,"leaf_child_counts":[0,0,0],"left_children":[1,-1,-1],"loss_changes":[2.86089390516281128e-01,0.00000000000000000e+00,0.00000000000000000e+00],"parents":[2147483647,0,0],"right_children":[2,-1,-1],"split_conditions":[1.63499984741210938e+01,1.99373245239257812e-01,-2.76136994361877441e-01],"split_indices":[1,0,0],"sum_hessian":[3.09448742866516113e+00,1.54116332530975342e+00,1.55332398414611816e+00],"tree_param":{"num_deleted":"0","num_feature":"9","num_nodes":"3","size_leaf_vector":"0"}},{"base_weights":[6.10901825129985809e-02,2.68449902534484863e-01,-8.61457362771034241e-02,-3.33107888698577881e-01,1.72709152102470398e-01],"default_left":[true,false,false,false,false],"id":18,"leaf_child_counts":[0,0,0,0,0],"left_children":[1,-1,3,-1,-1],"loss_changes":[1.86782389879226685e-01,0.00000000000000000e+00,3.06316196918487549e-01,0.00000000000000000e+00,0.00000000000000000e+00],"parents":[2147483647,0,0,2,2],"right_children":[2,-1,4,-1,-1],"split_conditions":[4.08000030517578125e+01,2.68449902534484863e-01,1.79500007629394531e+01,-3.33107888698577881e-01,1.72709152102470398e-01],"split_indices":[0,0,1,0,0],"sum_hessian":[4.36037635803222656e+00,1.46868705749511719e+00,2.89168906211853027e+00,1.33304095268249512e+00,1.55864810943603516e+00],"tree_param":{"num_deleted":"0","num_feature":"9","num_nodes":"5","size_leaf_vector":"0"}},{"base_weights":[-2.80702132731676102e-02,-2.76984810829162598e-01,1.30296811461448669e-01,2.33008906245231628e-01,-5.96725121140480042e-02],"default_left":[true,false,false,false,false],"id":19,"leaf_child_counts":[0,0,0,0,0],"left_children":[1,-1,3,-1,-1],"loss_changes":[2.27251380681991577e-01,0.00000000000000000e+00,8.50030183792114258e-02,0.00000000000000000e+00,0.00000000000000000e+00],"parents":[2147483647,0,0,2,2],"right_children":[2,-1,4,-1,-1],"split_conditions":[5.00000000000000000e-01,-2.76984810829162598e-01,3.87500000000000000e+03,2.33008906245231628e-01,-5.96725121140480042e-02],"split_indices":[5,0,3,0,0],"sum_hessian":[3.84936094284057617e+00,1.20553934574127197e+00,2.64382147789001465e+00,1.56895983219146729e+00,1.07486164569854736e+00],"tree_param":{"num_deleted":"0","num_feature":"9","num_nodes":"5","size_leaf_vector":"0"}},{"base_weights":[-5.65142221748828888e-02,-2.63626277446746826e-01,1.52246609330177307e-01],"default_left":[true,false,false],"id":20,"leaf_child_counts":[0,0,0],"left_children":[1,-1,-1],"loss_changes":[1.86523258686065674e-01,0.00000000000000000e+00,0.00000000000000000e+00],"parents":[2147483647,0,0],"right_children":[2,-1,-1],"split_conditions":[5.00000000000000000e-01,-2.63626277446746826e-01,1.52246609330177307e-01],"split_indices":[4,0,0],"sum_hessian":[2.38569879531860352e+00,1.06565022468566895e+00,1.32004857063293457e+00],"tree_param":{"num_deleted":"0","num_feature":"9","num_nodes":"3","size_leaf_vector":"0"}},{"base_weights":[5.64033240079879761e-02,2.16411203145980835e-01,-5.64433746039867401e-02,-2.33438327908515930e-01,1.33261188864707947e-01],"default_left":[true,false,false,false,false],"id":21,"leaf_child_counts":[0,0,0,0,0],"left_children":[1,-1,3,-1,-1],"loss_changes":[9.44451317191123962e-02,0.00000000000000000e+00,1.47409766912460327e-01,0.00000000000000000e+00,0.00000000000000000e+00],"parents":[2147483647,0,0,2,2],"right_children":[2,-1,4,-1,-1],"split_conditions":[4.08000030517578125e+01,2.16411203145980835e-01,1.82500000000000000e+01,-2.33438327908515930e-01,1.33261188864707947e-01],"split_indices":[0,0,1,0,0],"sum_hessian":[3.55408263206481934e+00,1.09033155441284180e+00,2.46375107765197754e+00,1.15530848503112793e+00,1.30844259262084961e+00],"tree_param":{"num_deleted":"0","num_feature":"9","num_nodes":"5","size_leaf_vector":"0"}},{"base_weights":[-2.22490988671779633e-02,9.37361493706703186e-02,-1.60999596118927002e-01],"default_left":[false,false,false],"id":22,"leaf_child_counts":[0,0,0],"left_children":[1,-1,-1],"loss_changes":[8.18413719534873962e-02,0.00000000000000000e+00,0.00000000000000000e+00],"parents":[2147483647,0,0],"right_children":[2,-1,-1],"split_conditions":[4.06250000000000000e+03,9.37361493706703186e-02,-1.60999596118927002e-01],"split_indices":[3,0,0],"sum_hessian":[3.14775657653808594e+00,1.89124274253845215e+00,1.25651383399963379e+00],"tree_param":{"num_deleted":"0","num_feature":"9","num_nodes":"3","size_leaf_vector":"0"}},{"base_weights":[-6.09562508761882782e-02],"default_left":[false],"id":23,"leaf_child_counts":[0],"left_children":[-1],"loss_changes":[0.00000000000000000e+00],"parents":[2147483647],"right_children":[-1],"split_conditions":[-6.09562508761882782e-02],"split_indices":[0],"sum_hessian":[1.70001137256622314e+00],"tree_param":{"num_deleted":"0","num_feature":"9","num_nodes":"1","size_leaf_vector":"0"}},{"base_weights":[4.07952442765235901e-02,1.57854080200195312e-01,-1.40468969941139221e-01,5.35214506089687347e-03,2.32386469841003418e-01],"default_left":[false,false,false,false,false],"id":24,"leaf_child_counts":[0,0,0,0,0],"left_children":[1,3,-1,-1,-1],"loss_changes":[1.12449124455451965e-01,3.34914326667785645e-02,0.00000000000000000e+00,0.00000000000000000e+00,0.00000000000000000e+00],"parents":[2147483647,0,0,1,1],"right_children":[2,4,-1,-1,-1],"split_conditions":[4.42999992370605469e+01,1.72500000000000000e+01,-1.40468969941139221e-01,5.35214506089687347e-03,2.32386469841003418e-01],"split_indices":[0,1,0,0,0],"sum_hessian":[3.25455117225646973e+00,2.05597186088562012e+00,1.19857943058013916e+00,1.02680957317352295e+00,1.02916228771209717e+00],"tree_param":{"num_deleted":"0","num_feature":"9","num_nodes":"5","size_leaf_vector":"0"}},{"base_weights":[-1.56884919852018356e-02,-1.19138889014720917e-01,1.12103395164012909e-01],"default_left":[true,false,false],"id":25,"leaf_child_counts":[0,0,0],"left_children":[1,-1,-1],"loss_changes":[6.53808861970901489e-02,0.00000000000000000e+00,0.00000000000000000e+00],"parents":[2147483647,0,0],"right_children":[2,-1,-1],"split_conditions":[4.34500007629394531e+01,-1.19138889014720917e-01,1.12103395164012909e-01],"split_indices":[0,0,0],"sum_hessian":[2.93529033660888672e+00,1.65955495834350586e+00,1.27573525905609131e+00],"tree_param":{"num_deleted":"0","num_feature":"9","num_nodes":"3","size_leaf_vector":"0"}},{"base_weights":[-4.43676263093948364e-02],"default_left":[false],"id":26,"leaf_child_counts":[0],"left_children":[-1],"loss_changes":[0.00000000000000000e+00],"parents":[2147483647],"right_children":[-1],"split_conditions":[-4.43676263093948364e-02],"split_indices":[0],"sum_hessian":[1.52057385444641113e+00],"tree_param":{"num_deleted":"0","num_feature":"9","num_nodes":"1","size_leaf_vector":"0"}},{"base_weights":[1.82109046727418900e-02,-1.19869962334632874e-01,1.13473676145076752e-01],"default_left":[true,false,false],"id":27,"leaf_child_counts":[0,0,0],"left_children":[1,-1,-1],"loss_changes":[6.49465993046760559e-02,0.00000000000000000e+00,0.00000000000000000e+00],"parents":[2147483647,0,0],"right_children":[2,-1,-1],"split_conditions":[1.66500015258789062e+01,-1.19869962334632874e-01,1.13473676145076752e-01],"split_indices":[1,0,0],"sum_hessian":[2.90334868431091309e+00,1.07984018325805664e+00,1.82350850105285645e+00],"tree_param":{"num_deleted":"0","num_feature":"9","num_nodes":"3","size_leaf_vector":"0"}},{"base_weights":[-9.14318894501775503e-04,1.16051711142063141e-01,-9.64576676487922668e-02],"default_left":[false,false,false],"id":28,"leaf_child_counts":[0,0,0],"left_children":[1,-1,-1],"loss_changes":[5.20796813070774078e-02,0.00000000000000000e+00,0.00000000000000000e+00],"parents":[2147483647,0,0],"right_children":[2,-1,-1],"split_conditions":[3.68750000000000000e+03,1.16051711142063141e-01,-9.64576676487922668e-02],"split_indices":[3,0,0],"sum_hessian":[2.65856051445007324e+00,1.09877216815948486e+00,1.55978822708129883e+00],"tree_param":{"num_deleted":"0","num_feature":"9","num_nodes":"3","size_leaf_vector":"0"}},{"base_weights":[-2.73153576999902725e-02],"default_left":[false],"id":29,"leaf_child_counts":[0],"left_children":[-1],"loss_changes":[0.00000000000000000e+00],"parents":[2147483647],"right_children":[-1],"split_conditions":[-2.73153576999902725e-02],"split_indices":[0],"sum_hessian":[1.47999656200408936e+00],"tree_param":{"num_deleted":"0","num_feature":"9","num_nodes":"1","size_leaf_vector":"0"}}]},"name":"gbtree"},"learner_model_param":{"base_score":"0.500000","num_class":"3","num_feature":"9"},"objective":{"name":"multi:softprob","softmax_multiclass_param":{"num_class":"3"}}},"version":[1,1,1]}